Language model created by QuickLM on Tue Dec 20 04:30:21 EST 2016
Copyright (c) 1996-2010 Carnegie Mellon University and Alexander I. Rudnicky

The model is in standard ARPA format, designed by Doug Paul while he was at MITRE.

The code that was used to produce this language model is available in Open Source.
Please visit http://www.speech.cs.cmu.edu/tools/ for more information

The (fixed) discount mass is 0.5. The backoffs are computed using the ratio method.
This model based on a corpus of 38 sentences and 40 words

\data\
ngram 1=40
ngram 2=76
ngram 3=38

\1-grams:
-0.7782 </s> -0.3010
-0.7782 <s> -0.2218
-2.3579 ARE -0.2218
-2.3579 ARM -0.2218
-2.3579 ARMED -0.2218
-2.3579 CLOSED -0.2218
-2.3579 COUCH -0.2218
-2.3579 DISARM -0.2218
-2.3579 DISARMED -0.2218
-2.3579 DOOR -0.2218
-2.3579 GET -0.2218
-2.3579 HELLO -0.2218
-2.3579 HUMIDITY -0.2218
-2.3579 IN -0.2218
-2.3579 IS -0.2218
-2.3579 IT -0.2218
-2.3579 KITCHEN -0.2218
-2.3579 LAMP -0.2218
-2.3579 LAMPS -0.2218
-2.3579 LOCK -0.2218
-2.3579 LOCKED -0.2218
-2.3579 OFF -0.2218
-2.3579 ON -0.2218
-2.3579 OPEN -0.2218
-2.3579 OUT -0.2218
-2.3579 PLEASE -0.2218
-2.3579 SWITCH -0.2218
-2.3579 SYSTEM -0.2218
-2.3579 TEMPERATURE -0.2218
-2.3579 THE -0.2218
-2.3579 TURN -0.2218
-2.3579 UNLOCK -0.2218
-2.3579 UNLOCKED -0.2218
-2.3579 VEREESHOOR -0.2218
-2.3579 VERIISHOOR -0.2218
-2.3579 VERYSHAUR -0.2218
-2.3579 VERYSHOOR -0.2218
-2.3579 VERYSHOR -0.2218
-2.3579 VERYSHUR -0.2218
-2.3579 WHAT -0.2218

\2-grams:
-1.8808 <s> ARE 0.0000
-1.8808 <s> ARM 0.0000
-1.8808 <s> ARMED 0.0000
-1.8808 <s> CLOSED 0.0000
-1.8808 <s> COUCH 0.0000
-1.8808 <s> DISARM 0.0000
-1.8808 <s> DISARMED 0.0000
-1.8808 <s> DOOR 0.0000
-1.8808 <s> GET 0.0000
-1.8808 <s> HELLO 0.0000
-1.8808 <s> HUMIDITY 0.0000
-1.8808 <s> IN 0.0000
-1.8808 <s> IS 0.0000
-1.8808 <s> IT 0.0000
-1.8808 <s> KITCHEN 0.0000
-1.8808 <s> LAMP 0.0000
-1.8808 <s> LAMPS 0.0000
-1.8808 <s> LOCK 0.0000
-1.8808 <s> LOCKED 0.0000
-1.8808 <s> OFF 0.0000
-1.8808 <s> ON 0.0000
-1.8808 <s> OPEN 0.0000
-1.8808 <s> OUT 0.0000
-1.8808 <s> PLEASE 0.0000
-1.8808 <s> SWITCH 0.0000
-1.8808 <s> SYSTEM 0.0000
-1.8808 <s> TEMPERATURE 0.0000
-1.8808 <s> THE 0.0000
-1.8808 <s> TURN 0.0000
-1.8808 <s> UNLOCK 0.0000
-1.8808 <s> UNLOCKED 0.0000
-1.8808 <s> VEREESHOOR 0.0000
-1.8808 <s> VERIISHOOR 0.0000
-1.8808 <s> VERYSHAUR 0.0000
-1.8808 <s> VERYSHOOR 0.0000
-1.8808 <s> VERYSHOR 0.0000
-1.8808 <s> VERYSHUR 0.0000
-1.8808 <s> WHAT 0.0000
-0.3010 ARE </s> -0.3010
-0.3010 ARM </s> -0.3010
-0.3010 ARMED </s> -0.3010
-0.3010 CLOSED </s> -0.3010
-0.3010 COUCH </s> -0.3010
-0.3010 DISARM </s> -0.3010
-0.3010 DISARMED </s> -0.3010
-0.3010 DOOR </s> -0.3010
-0.3010 GET </s> -0.3010
-0.3010 HELLO </s> -0.3010
-0.3010 HUMIDITY </s> -0.3010
-0.3010 IN </s> -0.3010
-0.3010 IS </s> -0.3010
-0.3010 IT </s> -0.3010
-0.3010 KITCHEN </s> -0.3010
-0.3010 LAMP </s> -0.3010
-0.3010 LAMPS </s> -0.3010
-0.3010 LOCK </s> -0.3010
-0.3010 LOCKED </s> -0.3010
-0.3010 OFF </s> -0.3010
-0.3010 ON </s> -0.3010
-0.3010 OPEN </s> -0.3010
-0.3010 OUT </s> -0.3010
-0.3010 PLEASE </s> -0.3010
-0.3010 SWITCH </s> -0.3010
-0.3010 SYSTEM </s> -0.3010
-0.3010 TEMPERATURE </s> -0.3010
-0.3010 THE </s> -0.3010
-0.3010 TURN </s> -0.3010
-0.3010 UNLOCK </s> -0.3010
-0.3010 UNLOCKED </s> -0.3010
-0.3010 VEREESHOOR </s> -0.3010
-0.3010 VERIISHOOR </s> -0.3010
-0.3010 VERYSHAUR </s> -0.3010
-0.3010 VERYSHOOR </s> -0.3010
-0.3010 VERYSHOR </s> -0.3010
-0.3010 VERYSHUR </s> -0.3010
-0.3010 WHAT </s> -0.3010

\3-grams:
-0.3010 <s> ARE </s>
-0.3010 <s> ARM </s>
-0.3010 <s> ARMED </s>
-0.3010 <s> CLOSED </s>
-0.3010 <s> COUCH </s>
-0.3010 <s> DISARM </s>
-0.3010 <s> DISARMED </s>
-0.3010 <s> DOOR </s>
-0.3010 <s> GET </s>
-0.3010 <s> HELLO </s>
-0.3010 <s> HUMIDITY </s>
-0.3010 <s> IN </s>
-0.3010 <s> IS </s>
-0.3010 <s> IT </s>
-0.3010 <s> KITCHEN </s>
-0.3010 <s> LAMP </s>
-0.3010 <s> LAMPS </s>
-0.3010 <s> LOCK </s>
-0.3010 <s> LOCKED </s>
-0.3010 <s> OFF </s>
-0.3010 <s> ON </s>
-0.3010 <s> OPEN </s>
-0.3010 <s> OUT </s>
-0.3010 <s> PLEASE </s>
-0.3010 <s> SWITCH </s>
-0.3010 <s> SYSTEM </s>
-0.3010 <s> TEMPERATURE </s>
-0.3010 <s> THE </s>
-0.3010 <s> TURN </s>
-0.3010 <s> UNLOCK </s>
-0.3010 <s> UNLOCKED </s>
-0.3010 <s> VEREESHOOR </s>
-0.3010 <s> VERIISHOOR </s>
-0.3010 <s> VERYSHAUR </s>
-0.3010 <s> VERYSHOOR </s>
-0.3010 <s> VERYSHOR </s>
-0.3010 <s> VERYSHUR </s>
-0.3010 <s> WHAT </s>

\end\
