Language model created by QuickLM on Tue Dec 20 03:50:00 EST 2016
Copyright (c) 1996-2010 Carnegie Mellon University and Alexander I. Rudnicky

The model is in standard ARPA format, designed by Doug Paul while he was at MITRE.

The code that was used to produce this language model is available in Open Source.
Please visit http://www.speech.cs.cmu.edu/tools/ for more information

The (fixed) discount mass is 0.5. The backoffs are computed using the ratio method.
This model based on a corpus of 36 sentences and 38 words

\data\
ngram 1=38
ngram 2=72
ngram 3=36

\1-grams:
-0.7782 </s> -0.3010
-0.7782 <s> -0.2218
-2.3345 ARE -0.2218
-2.3345 ARM -0.2218
-2.3345 ARMED -0.2218
-2.3345 BEDROOM -0.2218
-2.3345 CLOSED -0.2218
-2.3345 DISARM -0.2218
-2.3345 DISARMED -0.2218
-2.3345 DOOR -0.2218
-2.3345 GET -0.2218
-2.3345 HELLO -0.2218
-2.3345 HUMIDITY -0.2218
-2.3345 IN -0.2218
-2.3345 IS -0.2218
-2.3345 IT -0.2218
-2.3345 KITCHEN -0.2218
-2.3345 LAMP -0.2218
-2.3345 LAMPS -0.2218
-2.3345 LOCK -0.2218
-2.3345 LOCKED -0.2218
-2.3345 OFF -0.2218
-2.3345 ON -0.2218
-2.3345 OPEN -0.2218
-2.3345 OUT -0.2218
-2.3345 PLEASE -0.2218
-2.3345 SWITCH -0.2218
-2.3345 SYSTEM -0.2218
-2.3345 TEMPERATURE -0.2218
-2.3345 THE -0.2218
-2.3345 TURN -0.2218
-2.3345 UNLOCK -0.2218
-2.3345 UNLOCKED -0.2218
-2.3345 VERYSHAUR -0.2218
-2.3345 VERYSHOOR -0.2218
-2.3345 VERYSHOR -0.2218
-2.3345 VERYSHUR -0.2218
-2.3345 WHAT -0.2218

\2-grams:
-1.8573 <s> ARE 0.0000
-1.8573 <s> ARM 0.0000
-1.8573 <s> ARMED 0.0000
-1.8573 <s> BEDROOM 0.0000
-1.8573 <s> CLOSED 0.0000
-1.8573 <s> DISARM 0.0000
-1.8573 <s> DISARMED 0.0000
-1.8573 <s> DOOR 0.0000
-1.8573 <s> GET 0.0000
-1.8573 <s> HELLO 0.0000
-1.8573 <s> HUMIDITY 0.0000
-1.8573 <s> IN 0.0000
-1.8573 <s> IS 0.0000
-1.8573 <s> IT 0.0000
-1.8573 <s> KITCHEN 0.0000
-1.8573 <s> LAMP 0.0000
-1.8573 <s> LAMPS 0.0000
-1.8573 <s> LOCK 0.0000
-1.8573 <s> LOCKED 0.0000
-1.8573 <s> OFF 0.0000
-1.8573 <s> ON 0.0000
-1.8573 <s> OPEN 0.0000
-1.8573 <s> OUT 0.0000
-1.8573 <s> PLEASE 0.0000
-1.8573 <s> SWITCH 0.0000
-1.8573 <s> SYSTEM 0.0000
-1.8573 <s> TEMPERATURE 0.0000
-1.8573 <s> THE 0.0000
-1.8573 <s> TURN 0.0000
-1.8573 <s> UNLOCK 0.0000
-1.8573 <s> UNLOCKED 0.0000
-1.8573 <s> VERYSHAUR 0.0000
-1.8573 <s> VERYSHOOR 0.0000
-1.8573 <s> VERYSHOR 0.0000
-1.8573 <s> VERYSHUR 0.0000
-1.8573 <s> WHAT 0.0000
-0.3010 ARE </s> -0.3010
-0.3010 ARM </s> -0.3010
-0.3010 ARMED </s> -0.3010
-0.3010 BEDROOM </s> -0.3010
-0.3010 CLOSED </s> -0.3010
-0.3010 DISARM </s> -0.3010
-0.3010 DISARMED </s> -0.3010
-0.3010 DOOR </s> -0.3010
-0.3010 GET </s> -0.3010
-0.3010 HELLO </s> -0.3010
-0.3010 HUMIDITY </s> -0.3010
-0.3010 IN </s> -0.3010
-0.3010 IS </s> -0.3010
-0.3010 IT </s> -0.3010
-0.3010 KITCHEN </s> -0.3010
-0.3010 LAMP </s> -0.3010
-0.3010 LAMPS </s> -0.3010
-0.3010 LOCK </s> -0.3010
-0.3010 LOCKED </s> -0.3010
-0.3010 OFF </s> -0.3010
-0.3010 ON </s> -0.3010
-0.3010 OPEN </s> -0.3010
-0.3010 OUT </s> -0.3010
-0.3010 PLEASE </s> -0.3010
-0.3010 SWITCH </s> -0.3010
-0.3010 SYSTEM </s> -0.3010
-0.3010 TEMPERATURE </s> -0.3010
-0.3010 THE </s> -0.3010
-0.3010 TURN </s> -0.3010
-0.3010 UNLOCK </s> -0.3010
-0.3010 UNLOCKED </s> -0.3010
-0.3010 VERYSHAUR </s> -0.3010
-0.3010 VERYSHOOR </s> -0.3010
-0.3010 VERYSHOR </s> -0.3010
-0.3010 VERYSHUR </s> -0.3010
-0.3010 WHAT </s> -0.3010

\3-grams:
-0.3010 <s> ARE </s>
-0.3010 <s> ARM </s>
-0.3010 <s> ARMED </s>
-0.3010 <s> BEDROOM </s>
-0.3010 <s> CLOSED </s>
-0.3010 <s> DISARM </s>
-0.3010 <s> DISARMED </s>
-0.3010 <s> DOOR </s>
-0.3010 <s> GET </s>
-0.3010 <s> HELLO </s>
-0.3010 <s> HUMIDITY </s>
-0.3010 <s> IN </s>
-0.3010 <s> IS </s>
-0.3010 <s> IT </s>
-0.3010 <s> KITCHEN </s>
-0.3010 <s> LAMP </s>
-0.3010 <s> LAMPS </s>
-0.3010 <s> LOCK </s>
-0.3010 <s> LOCKED </s>
-0.3010 <s> OFF </s>
-0.3010 <s> ON </s>
-0.3010 <s> OPEN </s>
-0.3010 <s> OUT </s>
-0.3010 <s> PLEASE </s>
-0.3010 <s> SWITCH </s>
-0.3010 <s> SYSTEM </s>
-0.3010 <s> TEMPERATURE </s>
-0.3010 <s> THE </s>
-0.3010 <s> TURN </s>
-0.3010 <s> UNLOCK </s>
-0.3010 <s> UNLOCKED </s>
-0.3010 <s> VERYSHAUR </s>
-0.3010 <s> VERYSHOOR </s>
-0.3010 <s> VERYSHOR </s>
-0.3010 <s> VERYSHUR </s>
-0.3010 <s> WHAT </s>

\end\
