Language model created by QuickLM on Mon Dec 12 09:53:31 EST 2016
Copyright (c) 1996-2010 Carnegie Mellon University and Alexander I. Rudnicky

The model is in standard ARPA format, designed by Doug Paul while he was at MITRE.

The code that was used to produce this language model is available in Open Source.
Please visit http://www.speech.cs.cmu.edu/tools/ for more information

The (fixed) discount mass is 0.5. The backoffs are computed using the ratio method.
This model based on a corpus of 5 sentences and 7 words

\data\
ngram 1=7
ngram 2=10
ngram 3=5

\1-grams:
-0.7782 </s> -0.3010
-0.7782 <s> -0.2218
-1.4771 CONTINUE -0.2218
-1.4771 OKAY -0.2218
-1.4771 PAUSE -0.2218
-1.4771 START -0.2218
-1.4771 STOP -0.2218

\2-grams:
-1.0000 <s> CONTINUE 0.0000
-1.0000 <s> OKAY 0.0000
-1.0000 <s> PAUSE 0.0000
-1.0000 <s> START 0.0000
-1.0000 <s> STOP 0.0000
-0.3010 CONTINUE </s> -0.3010
-0.3010 OKAY </s> -0.3010
-0.3010 PAUSE </s> -0.3010
-0.3010 START </s> -0.3010
-0.3010 STOP </s> -0.3010

\3-grams:
-0.3010 <s> CONTINUE </s>
-0.3010 <s> OKAY </s>
-0.3010 <s> PAUSE </s>
-0.3010 <s> START </s>
-0.3010 <s> STOP </s>

\end\
